<?xml version="1.0"?>
<opencv_storage>
<cascade>
  <stageType>BOOST</stageType>
  <featureType>LBP</featureType>
  <height>24</height>
  <width>24</width>
  <stageParams>
    <boostType>GAB</boostType>
    <minHitRate>9.9500000476837158e-001</minHitRate>
    <maxFalseAlarm>5.0000000000000000e-001</maxFalseAlarm>
    <weightTrimRate>9.4999999999999996e-001</weightTrimRate>
    <maxDepth>1</maxDepth>
    <maxWeakCount>100</maxWeakCount></stageParams>
  <featureParams>
    <maxCatCount>256</maxCatCount>
    <featSize>1</featSize></featureParams>
  <stageNum>20</stageNum>
  <stages>
    <!-- stage 0 -->
    <_>
      <maxWeakCount>1</maxWeakCount>
      <stageThreshold>1.</stageThreshold>
      <weakClassifiers>
        <_>
          <internalNodes>
            0 -1 15 1117257729 1614807065 0 137371648 1073758208 2
            1342177283 562070089</internalNodes>
          <leafValues>
            -1. 1.</leafValues></_></weakClassifiers></_>
    <!-- stage 1 -->
    <_>
      <maxWeakCount>2</maxWeakCount>
      <stageThreshold>4.2553495615720749e-002</stageThreshold>
      <weakClassifiers>
        <_>
          <internalNodes>
            0 -1 3 1079005573 0 65537 0 -939491294 537001984 33554434
            -1040047102</internalNodes>
          <leafValues>
            -9.5555555820465088e-001 1.</leafValues></_>
        <_>
          <internalNodes>
            0 -1 11 -732868321 1 16777217 196609 1073741825 65538
            -2147483648 1073922313</internalNodes>
          <leafValues>
            -9.5744651556015015e-001 1.</leafValues></_></weakClassifiers></_>
    <!-- stage 2 -->
    <_>
      <maxWeakCount>2</maxWeakCount>
      <stageThreshold>4.2553495615720749e-002</stageThreshold>
      <weakClassifiers>
        <_>
          <internalNodes>
            0 -1 7 -2104799297 -32774 -16385 2147483647 127 1073741824
            -2145386496 -2113388542</internalNodes>
          <leafValues>
            -9.5555555820465088e-001 1.</leafValues></_>
        <_>
          <internalNodes>
            0 -1 13 -1072758717 0 1 1073741824 0 1 -1056948224
            1350754306</internalNodes>
          <leafValues>
            -9.5744651556015015e-001 1.</leafValues></_></weakClassifiers></_>
    <!-- stage 3 -->
    <_>
      <maxWeakCount>1</maxWeakCount>
      <stageThreshold>9.5744681358337402e-001</stageThreshold>
      <weakClassifiers>
        <_>
          <internalNodes>
            0 -1 4 -511684597 -2147483647 1048579 65541 196610 16 2
            1107476481</internalNodes>
          <leafValues>
            -1. 9.5744681358337402e-001</leafValues></_></weakClassifiers></_>
    <!-- stage 4 -->
    <_>
      <maxWeakCount>1</maxWeakCount>
      <stageThreshold>9.1666668653488159e-001</stageThreshold>
      <weakClassifiers>
        <_>
          <internalNodes>
            0 -1 1 1229505551 1090523138 -2147483647 32 -2147352063 128
            32771 76201984</internalNodes>
          <leafValues>
            -1. 9.1666668653488159e-001</leafValues></_></weakClassifiers></_>
    <!-- stage 5 -->
    <_>
      <maxWeakCount>1</maxWeakCount>
      <stageThreshold>9.5744681358337402e-001</stageThreshold>
      <weakClassifiers>
        <_>
          <internalNodes>
            0 -1 12 -1048047471 4259840 557057 0 278528 139265 16385
            1226950698</internalNodes>
          <leafValues>
            -1. 9.5744681358337402e-001</leafValues></_></weakClassifiers></_>
    <!-- stage 6 -->
    <_>
      <maxWeakCount>2</maxWeakCount>
      <stageThreshold>5.0777671858668327e-003</stageThreshold>
      <weakClassifiers>
        <_>
          <internalNodes>
            0 -1 6 -939476985 -1073741824 786433 1083179008 16385
            2293760 0 545505859</internalNodes>
          <leafValues>
            -9.5555555820465088e-001 1.</leafValues></_>
        <_>
          <internalNodes>
            0 -1 8 -791609319 -805306240 0 0 16392 4194304 2097153
            4571651</internalNodes>
          <leafValues>
            -1. 9.6063333749771118e-001</leafValues></_></weakClassifiers></_>
    <!-- stage 7 -->
    <_>
      <maxWeakCount>1</maxWeakCount>
      <stageThreshold>1.</stageThreshold>
      <weakClassifiers>
        <_>
          <internalNodes>
            0 -1 5 -1869535981 301989889 0 805371921 2097152 35651585 1
            680137216</internalNodes>
          <leafValues>
            -1. 1.</leafValues></_></weakClassifiers></_>
    <!-- stage 8 -->
    <_>
      <maxWeakCount>1</maxWeakCount>
      <stageThreshold>1.</stageThreshold>
      <weakClassifiers>
        <_>
          <internalNodes>
            0 -1 10 -1341978285 268509204 -2147483520 -2147483631
            50331648 -2147483520 67110912 -670564217</internalNodes>
          <leafValues>
            -1. 1.</leafValues></_></weakClassifiers></_>
    <!-- stage 9 -->
    <_>
      <maxWeakCount>1</maxWeakCount>
      <stageThreshold>1.</stageThreshold>
      <weakClassifiers>
        <_>
          <internalNodes>
            0 -1 16 67174657 1081616 69633 -2143223804 16777361
            1073774592 0 -855635964</internalNodes>
          <leafValues>
            -1. 1.</leafValues></_></weakClassifiers></_>
    <!-- stage 10 -->
    <_>
      <maxWeakCount>2</maxWeakCount>
      <stageThreshold>4.2553495615720749e-002</stageThreshold>
      <weakClassifiers>
        <_>
          <internalNodes>
            0 -1 28 475179 -2147483647 2 -2008973308 -2147483615 0
            17072135 -259489720</internalNodes>
          <leafValues>
            -9.5555555820465088e-001 1.</leafValues></_>
        <_>
          <internalNodes>
            0 -1 29 25758371 32769 67108928 8388616 17317890 2 8388608
            -532630912</internalNodes>
          <leafValues>
            -9.5744651556015015e-001 1.</leafValues></_></weakClassifiers></_>
    <!-- stage 11 -->
    <_>
      <maxWeakCount>1</maxWeakCount>
      <stageThreshold>9.5744681358337402e-001</stageThreshold>
      <weakClassifiers>
        <_>
          <internalNodes>
            0 -1 18 1275397523 -2147483581 49152 -803078144 134217729
            16809985 302058016 134283265</internalNodes>
          <leafValues>
            -1. 9.5744681358337402e-001</leafValues></_></weakClassifiers></_>
    <!-- stage 12 -->
    <_>
      <maxWeakCount>1</maxWeakCount>
      <stageThreshold>9.5744681358337402e-001</stageThreshold>
      <weakClassifiers>
        <_>
          <internalNodes>
            0 -1 24 -1493053109 537141248 16778752 1090650113 8194
            67108864 16875520 1090560128</internalNodes>
          <leafValues>
            -1. 9.5744681358337402e-001</leafValues></_></weakClassifiers></_>
    <!-- stage 13 -->
    <_>
      <maxWeakCount>2</maxWeakCount>
      <stageThreshold>4.1747972369194031e-002</stageThreshold>
      <weakClassifiers>
        <_>
          <internalNodes>
            0 -1 25 -1141047147 805306367 -129 -16385 -1 -1 8552457
            -1705050144</internalNodes>
          <leafValues>
            -9.1304349899291992e-001 1.</leafValues></_>
        <_>
          <internalNodes>
            0 -1 0 1073807765 -2122055662 11 -1870589952 33554560
            -2130706432 32896 -670924544</internalNodes>
          <leafValues>
            -9.5825201272964478e-001 9.6214836835861206e-001</leafValues></_></weakClassifiers></_>
    <!-- stage 14 -->
    <_>
      <maxWeakCount>2</maxWeakCount>
      <stageThreshold>5.0777671858668327e-003</stageThreshold>
      <weakClassifiers>
        <_>
          <internalNodes>
            0 -1 20 289439807 16777216 257 0 -2130112512 131074
            -2130706426 570853506</internalNodes>
          <leafValues>
            -9.5555555820465088e-001 1.</leafValues></_>
        <_>
          <internalNodes>
            0 -1 19 1350959412 -1878978431 1 -1073672192 1 42565634
            524416 -750780279</internalNodes>
          <leafValues>
            -1. 9.6063333749771118e-001</leafValues></_></weakClassifiers></_>
    <!-- stage 15 -->
    <_>
      <maxWeakCount>2</maxWeakCount>
      <stageThreshold>4.1747972369194031e-002</stageThreshold>
      <weakClassifiers>
        <_>
          <internalNodes>
            0 -1 26 872398639 804187905 -1 -1073741825 536903887
            268435457 -2146959216 -1862270848</internalNodes>
          <leafValues>
            -9.1304349899291992e-001 1.</leafValues></_>
        <_>
          <internalNodes>
            0 -1 21 553914441 17301760 4194304 -1744830335 -2147450870
            671088640 1098907649 1133182985</internalNodes>
          <leafValues>
            -9.5825201272964478e-001 9.6214836835861206e-001</leafValues></_></weakClassifiers></_>
    <!-- stage 16 -->
    <_>
      <maxWeakCount>1</maxWeakCount>
      <stageThreshold>1.</stageThreshold>
      <weakClassifiers>
        <_>
          <internalNodes>
            0 -1 9 805527617 8195 21 16781312 -939327471 0 538132483
            -939153920</internalNodes>
          <leafValues>
            -1. 1.</leafValues></_></weakClassifiers></_>
    <!-- stage 17 -->
    <_>
      <maxWeakCount>2</maxWeakCount>
      <stageThreshold>4.2553495615720749e-002</stageThreshold>
      <weakClassifiers>
        <_>
          <internalNodes>
            0 -1 22 1040122113 114687 -2147188731 1216479233 5242881
            -2147483504 -2004615030 1744830520</internalNodes>
          <leafValues>
            -9.5555555820465088e-001 1.</leafValues></_>
        <_>
          <internalNodes>
            0 -1 27 68354085 262208 16777217 16777217 32819 1073741824
            33620098 -2004058110</internalNodes>
          <leafValues>
            -9.5744651556015015e-001 1.</leafValues></_></weakClassifiers></_>
    <!-- stage 18 -->
    <_>
      <maxWeakCount>2</maxWeakCount>
      <stageThreshold>4.4444445520639420e-002</stageThreshold>
      <weakClassifiers>
        <_>
          <internalNodes>
            0 -1 14 -1073737643 1224769556 -1879047934 302030864
            1342179328 2056 1 -939390976</internalNodes>
          <leafValues>
            -9.5555555820465088e-001 1.</leafValues></_>
        <_>
          <internalNodes>
            0 -1 17 -394199039 1073741824 4161 -2147483584 4259971
            -1878900736 -2078277632 1476427904</internalNodes>
          <leafValues>
            -9.1666609048843384e-001 1.</leafValues></_></weakClassifiers></_>
    <!-- stage 19 -->
    <_>
      <maxWeakCount>2</maxWeakCount>
      <stageThreshold>4.1747972369194031e-002</stageThreshold>
      <weakClassifiers>
        <_>
          <internalNodes>
            0 -1 23 -536871863 -276824193 -2147450880 8 4327426
            -2147483648 -2147319678 -1576992824</internalNodes>
          <leafValues>
            -9.1304349899291992e-001 1.</leafValues></_>
        <_>
          <internalNodes>
            0 -1 2 -1056603116 268566592 65 193005697 2101336
            -2147483648 0 -401993566</internalNodes>
          <leafValues>
            -9.5825201272964478e-001 9.6214836835861206e-001</leafValues></_></weakClassifiers></_></stages>
  <features>
    <_>
      <rect>
        0 0 2 2</rect></_>
    <_>
      <rect>
        0 0 2 3</rect></_>
    <_>
      <rect>
        0 2 2 1</rect></_>
    <_>
      <rect>
        0 2 5 1</rect></_>
    <_>
      <rect>
        0 3 6 3</rect></_>
    <_>
      <rect>
        0 5 7 6</rect></_>
    <_>
      <rect>
        0 6 8 5</rect></_>
    <_>
      <rect>
        0 9 1 5</rect></_>
    <_>
      <rect>
        0 9 2 5</rect></_>
    <_>
      <rect>
        0 14 1 3</rect></_>
    <_>
      <rect>
        0 15 1 2</rect></_>
    <_>
      <rect>
        0 16 4 2</rect></_>
    <_>
      <rect>
        1 8 3 5</rect></_>
    <_>
      <rect>
        1 8 7 5</rect></_>
    <_>
      <rect>
        1 12 2 4</rect></_>
    <_>
      <rect>
        1 19 7 1</rect></_>
    <_>
      <rect>
        2 0 2 1</rect></_>
    <_>
      <rect>
        2 0 3 3</rect></_>
    <_>
      <rect>
        2 3 5 7</rect></_>
    <_>
      <rect>
        3 21 1 1</rect></_>
    <_>
      <rect>
        12 2 4 5</rect></_>
    <_>
      <rect>
        15 15 3 2</rect></_>
    <_>
      <rect>
        15 18 3 2</rect></_>
    <_>
      <rect>
        17 2 2 2</rect></_>
    <_>
      <rect>
        18 15 2 3</rect></_>
    <_>
      <rect>
        18 18 2 2</rect></_>
    <_>
      <rect>
        18 21 2 1</rect></_>
    <_>
      <rect>
        19 20 1 1</rect></_>
    <_>
      <rect>
        20 17 1 2</rect></_>
    <_>
      <rect>
        21 12 1 3</rect></_></features></cascade>
</opencv_storage>
